svm_type c_svc
kernel_type rbf
gamma 0.2
nr_class 5
total_sv 105
rho -0.0913012 0.0891674 -0.156709 0.085137 0.173029 0.0308918 0.403759 -0.35276 -0.333103 -0.515697
label 1 2 3 4 5
nr_sv 20 21 23 21 20
SV
1 1 1 1 1:0.6799101 2:1.5962528 3:0.63450119 4:0.5050235 5:0.043451902 
1 1 1 1 1:0.36542098 2:0.82659809 3:0.7560651 4:0.25526658 5:0.03634246 
1 1 1 1 1:0.95052835 2:1.9081558 3:0.60352227 4:0.64332098 5:0.037771746 
1 1 1 1 1:0.85686171 2:1.9586701 3:0.69908068 4:0.69121002 5:0.094193549 
1 1 1 1 1:0.55763936 2:1.3190669 3:0.60682541 4:0.42571031 5:0.034001034 
1 1 1 1 1:0.37536733 2:0.85488611 3:0.57244715 4:0.21925584 5:0.034563048 
1 1 1 1 1:0.78401326 2:1.7610213 3:0.64472861 4:0.51052629 5:0.044933149 
1 1 1 1 1:0.36796168 2:0.9682219 3:0.70350624 4:0.27424629 5:0.027803462 
1 1 1 1 1:0.42288394 2:1.0339824 3:0.54255592 4:0.30504986 5:0.036908763 
1 1 0.2620160814877729 0.1662823152203293 1:0.77414217 2:2.182219 3:0.63742217 4:0.59722831 5:0.03405201 
1 1 1 1 1:0.60259325 2:1.4650992 3:0.63145995 4:0.43807057 5:0.043648595 
1 1 1 1 1:0.67720435 2:1.5690669 3:0.5127796 4:0.43021568 5:0.037033191 
1 1 1 1 1:0.10356716 2:0.2101396 3:0.65913573 4:0.064258691 5:0.047007938 
1 1 1 1 1:0.6851415 2:1.7162013 3:0.55027927 4:0.57323217 5:0.024689626 
1 1 1 1 1:0.53675023 2:1.0137766 3:0.53107512 4:0.30224928 5:0.023923959 
1 1 1 1 1:0.72379701 2:1.7635929 3:0.51521954 4:0.53762192 5:0.028640214 
1 1 1 1 1:0.20488334 2:0.43828068 3:0.69860231 4:0.12386921 5:0.043204829 
1 1 0 0 1:1 2:2.3706833 3:0.6025602 4:0.75362282 5:0.037027243 
1 1 1 1 1:0.83170799 2:1.8848273 3:0.53167909 4:0.65319165 5:0.02623103 
1 1 1 1 1:0.83114276 2:1.8552535 3:0.52528662 4:0.50935217 5:0.044539228 
-1 1 1 0 1:0.92240472 2:1.8752755 3:0.50958604 4:0.54070365 
-1 1 1 1 1:0.72985655 2:1.5345334 3:0.53025201 4:0.43809751 5:0.037328462 
-1 1 0 0.4986273568230422 1:0.90305213 2:1.9403012 3:0.66043988 4:0.59173308 5:0.040759328 
-1 1 1 1 1:0.5937984 2:1.4441587 3:0.54812261 4:0.39261397 5:0.048385621 
-1 1 1 1 1:0.30453852 2:0.56024982 3:0.60645394 4:0.18750567 5:0.038574917 
-1 1 1 1 1:0.69571604 2:1.5332476 3:0.61532644 4:0.46361219 5:0.045674459 
-1 1 1 1 1:0.76106278 2:1.8754592 3:0.65702718 4:0.57868821 5:0.046586499 
-1 1 1 1 1:0.64282872 2:1.5150625 3:0.56239344 4:0.41806072 5:0.03732775 
-1 1 1 1 1:0.76974179 2:1.3471712 3:0.64567199 4:0.41504649 5:0.036909365 
-1 1 1 1 1:0.62755718 2:1.7173035 3:0.50760042 4:0.4792307 5:0.032376798 
-1 1 1 1 1:0.75269372 2:1.7797575 3:0.56797883 4:0.49232007 5:0.036661012 
-1 1 1 1 1:0.84880177 2:1.781227 3:0.62525455 4:0.56034502 5:0.039501082 
-1 1 1 1 1:0.57692042 2:1.7259368 3:0.61898768 4:0.40903568 5:0.030809949 
-1 1 1 1 1:0.60921132 2:1.3646216 3:0.45615864 4:0.33568491 5:0.031602108 
-1 1 1 1 1:0.42737424 2:1.2365907 3:0.55743072 4:0.41236968 5:0.043327316 
-0.6804529358536812 0 0 0 1:0.92600962 2:2.2926157 3:0.53316764 4:0.7585236 5:0.045833621 
-1 1 1 1 1:0.32727799 2:0.66531962 3:0.60781688 4:0.18052745 5:0.033733823 
-1 1 1 1 1:0.68358969 2:1.4425055 3:0.59199337 4:0.41631686 5:0.037032816 
-1 1 1 1 1:0.71221762 2:1.5150625 3:0.6032871 4:0.43888602 5:0.037920953 
-0.3195470641463188 0.5037511137965964 0 0 1:0.86954518 2:2.1239897 3:0.53397472 4:0.65784054 5:0.03024393 
-1 1 0 0 1:0.7112681 2:2.033615 3:0.51206874 4:0.56749967 5:0.031599536 
-1 -0.5037511137965964 1 1 1:0.32759667 2:0.69452608 3:0.69641893 4:0.21292924 5:0.043172639 
-1 -1 1 1 1:0.68326852 2:1.4017267 3:0.59086293 4:0.55138143 5:0.05141452 
-1 -1 1 1 1:0.82039993 2:1.7255694 3:0.71715439 4:0.52263364 5:0.057863443 
-1 -1 1 1 1:0.58393678 2:0.92615724 3:0.70349288 4:0.31134087 5:0.065298042 
-1 -1 1 1 1:0.75821678 2:1.2992285 3:0.64467516 4:0.4211717 5:0.088510653 
-1 -1 1 1 1:0.32951948 2:0.7483468 3:0.61208744 4:0.22233857 5:0.054514848 
-1 -1 0 0 1:0.90004291 2:1.8225569 3:0.79322269 4:0.55321736 5:0.061275008 
-1 -1 1 1 1:0.42099323 2:0.77443057 3:0.78124482 4:0.22338691 5:0.058518016 
-1 -1 1 1 1:0.85252479 2:1.9441587 3:0.69601539 4:0.60484243 5:0.024306197 
-1 -1 1 0 1:0.8790253 2:1.6480529 3:0.64900719 4:0.58307325 5:0.12095806 
-1 -1 0 1 1:0.92720288 2:2.04482 3:0.64126781 4:0.61710635 5:0.034069948 
-1 -1 1 1 1:0.64317114 2:1.300698 3:0.87154654 4:0.40054038 5:0.064362109 
-1 -1 1 1 1:0.81967013 2:1.6537472 3:0.65477966 4:0.47938918 5:0.056486255 
-0.5816688234178556 -1 1 1 1:0.4527019 2:0.78141073 3:0.80203373 4:0.29717068 5:0.072294902 
-0.4183311765821444 -0 1 1 1:0.25145416 2:0.46289493 3:0.78107379 4:0.14328618 5:0.073010995 
-1 -1 1 1 1:0.65866129 2:1.1278472 3:0.61968786 4:0.37456954 5:0.081711447 
-0 -0 1 1 1:0.31171112 2:0.52351212 3:0.74198135 4:0.16341075 5:0.060859602 
-1 -1 1 0 1:0.92409985 2:1.8526819 3:0.59142414 4:0.59881491 5:0.047500322 
-1 -1 1 1 1:0.27694434 2:0.58982366 3:0.44876132 4:0.16943493 5:0.024294104 
-1 -1 1 1 1:0.69934531 2:1.1860764 3:0.58794196 4:0.38054253 5:0.079205224 
-0 -0 1 1 1:0.46703662 2:0.91182954 3:1.1247762 4:0.3013792 5:0.3 
-1 -1 1 1 1:0.64572213 2:1.6050698 3:0.79786205 4:0.50747685 5:0.091402968 
-1 -1 1 1 1:0.69704891 2:1.2534901 3:0.56101713 4:0.40287562 5:0.047555849 
-1 -1 -1 1 1:0.73812469 2:1.3188832 3:0.64081616 4:0.49645277 5:0.030427589 
-1 -1 -1 1 1:0.86594938 2:1.6089273 3:0.66166653 4:0.54292428 5:0.060941815 
-1 -1 -1 1 1:0.56852127 2:1.0811903 3:0.69728747 4:0.44676421 5:0.054703428 
-1 -1 -1 1 1:0.71139802 2:1.3912564 3:0.54787407 4:0.47761143 5:0.039650181 
-1 -1 -1 1 1:0.42063046 2:0.71803821 3:0.70300917 4:0.28098512 5:0.013334363 
-1 -1 -1 1 1:0.36718748 2:0.68019838 3:0.65974238 4:0.22417697 5:0.050000868 
-1 -1 -1 1 1:0.44852166 2:0.856723 3:0.59906732 4:0.30937755 5:0.043279578 
-1 -1 -1 1 1:0.89134849 2:1.6958119 3:0.51643016 4:0.58829671 5:0.048587695 
-0 -0 -1 1 1:0.20476066 2:0.41660544 3:0.59844731 4:0.15400976 5:0.034811046 
-0.2620160814877728 -0 -1 1 1:0.25063689 2:0.48824394 3:0.5442743 4:0.17384216 5:0.037526725 
-1 -1 -1 0.2230693378968245 1:0.74743316 2:1.4309331 3:0.46881798 4:0.54355003 5:0.051352123 
-1 -1 -1 1 1:0.87705553 2:1.6438281 3:0.63163366 4:0.54227413 5:0.09127194 
-1 -1 -1 0.7769306621031755 1:0.41092131 2:0.6704629 3:0.61149683 4:0.28051506 5:0.040700591 
-1 -1 -1 1 1:0.45353344 2:0.85047759 3:0.62482161 4:0.29318001 5:0.067548255 
-1 -0 -1 1 1:0.31328107 2:0.58817046 3:0.65069617 4:0.22910599 5:0.045591722 
-1 -1 -1 1 1:0.37728067 2:0.8104335 3:0.55755365 4:0.26996835 5:0.028439425 
-1 -1 -1 1 1:0.52106874 2:1.0189199 3:0.58926481 4:0.33246127 5:0.047402367 
-1 -1 -1 1 1:0.93686486 2:1.6897502 3:0.6230685 4:0.68205538 5:0.031548426 
-0 -0 -1 1 1:0.17071188 2:0.32421014 3:0.61062829 4:0.10591823 5:0.044936779 
-1 -1 -1 1 1:0.59492821 2:1.0991918 3:0.63063952 4:0.39769762 5:0.064636875 
-1 -1 -1 1 1:0.86830444 2:1.7902278 3:0.61396082 4:0.6226764 5:0.050363615 
-1 -1 -1 -1 1:0.85025376 2:2.1504409 3:0.53025201 4:0.65880652 5:0.019246555 
-1 -0.4986273568230422 -1 -1 1:0.27488259 2:0.66293167 3:0.69158983 4:0.18760961 5:0.042463735 
-1 -1 -1 -1 1:0.54565261 2:1.4838354 3:0.62165745 4:0.46509025 5:0.037921272 
-1 -1 -1 -1 1:0.52053435 2:1.3223733 3:0.63239263 4:0.43236252 5:0.038757989 
-1 -1 -1 -1 1:0.71611293 2:1.9285452 3:0.86763676 4:0.5699556 5:0.025952097 
-0 -0 -1 -1 1:0.25297836 2:0.48640705 3:0.71486143 4:0.17330471 5:0.041311267 
-1 -1 -1 -1 1:0.32403461 2:0.75055107 3:0.71002165 4:0.22919316 5:0.038258764 
-1 -1 -1 -1 1:0.69471735 2:1.4054004 3:0.62153184 4:0.4481462 5:0.03889697 
-1 -1 -1 -1 1:0.78045234 2:1.9031962 3:0.79801438 4:0.54229552 5:0.05130335 
-1 -1 -1 -1 1:0.42947559 2:0.88078619 3:0.86447259 4:0.31360744 5:0.051272224 
-1 -1 -1 -1 1:0.32485586 2:0.90576782 3:0.78994628 4:0.26719983 5:0.033330414 
-1 -1 -1 -1 1:0.27956183 2:0.66605437 3:0.64914616 4:0.19353175 5:0.030052435 
-1 -1 -1 -1 1:0.31249321 2:0.71050698 3:0.65224886 4:0.24328884 5:0.025682215 
-1 -0 -1 -1 1:0.28691916 2:0.59129317 3:0.77865256 4:0.20669068 5:0.057149522 
-1 -1 -1 -1 1:0.7290136 2:2.4252388 3:0.6382239 4:0.74730637 5:0.034201459 
-1 -1 -1 -1 1:0.39415348 2:0.87784717 3:0.69053689 4:0.32752195 5:0.03067609 
-1 -1 -1 -1 1:0.73016174 2:1.5857825 3:0.60632834 4:0.47198006 5:0.02182627 
-0.1662823152203294 -0 -1 -1 1:0.212175 2:0.48052902 3:0.6203533 4:0.13757702 5:0.036297111 
-1 -1 -1 -1 1:0.37336467 2:0.83229243 3:0.59081483 4:0.31797848 5:0.035934152 
-1 -1 -1 -1 1:0.32287932 2:0.83027186 3:0.95513509 4:0.24151981 5:0.029070525 
